<?xml version="1.0"?>
<opencv_storage>
<cascade>
  <stageType>BOOST</stageType>
  <featureType>HAAR</featureType>
  <height>24</height>
  <width>24</width>
  <stageParams>
    <boostType>GAB</boostType>
    <minHitRate>9.9500000476837158e-01</minHitRate>
    <maxFalseAlarm>5.0000000000000000e-01</maxFalseAlarm>
    <weightTrimRate>9.4999998807907104e-01</weightTrimRate>
    <maxDepth>1</maxDepth>
    <maxWeakCount>100</maxWeakCount></stageParams>
  <featureParams>
    <maxCatCount>0</maxCatCount>
    <featSize>1</featSize>
    <mode>BASIC</mode></featureParams>
  <stageNum>25</stageNum>
  <stages>
    <!-- stage 0 -->
    <_>
      <maxWeakCount>2</maxWeakCount>
      <stageThreshold>-2.2845461964607239e-01</stageThreshold>
      <weakClassifiers>
        <_>
          <internalNodes>
            0 -1 29 -6.9923579692840576e-02</internalNodes>
          <leafValues>
            8.9230769872665405e-01 -7.9220777750015259e-01</leafValues></_>
        <_>
          <internalNodes>
            0 -1 9 -8.7242044508457184e-02</internalNodes>
          <leafValues>
            5.6375318765640259e-01 -9.8541605472564697e-01</leafValues></_></weakClassifiers></_>
    <!-- stage 1 -->
    <_>
      <maxWeakCount>4</maxWeakCount>
      <stageThreshold>-1.1229450702667236e+00</stageThreshold>
      <weakClassifiers>
        <_>
          <internalNodes>
            0 -1 78 3.5451769828796387e-02</internalNodes>
          <leafValues>
            -8.7999999523162842e-01 4.4565218687057495e-01</leafValues></_>
        <_>
          <internalNodes>
            0 -1 72 -1.9466307014226913e-02</internalNodes>
          <leafValues>
            5.7034158706665039e-01 -7.2291612625122070e-01</leafValues></_>
        <_>
          <internalNodes>
            0 -1 66 -3.8239816203713417e-03</internalNodes>
          <leafValues>
            7.7523201704025269e-01 -4.8972740769386292e-01</leafValues></_>
        <_>
          <internalNodes>
            0 -1 73 -5.8136414736509323e-03</internalNodes>
          <leafValues>
            8.5497653484344482e-01 -3.5595369338989258e-01</leafValues></_></weakClassifiers></_>
    <!-- stage 2 -->
    <_>
      <maxWeakCount>5</maxWeakCount>
      <stageThreshold>-1.0159831047058105e+00</stageThreshold>
      <weakClassifiers>
        <_>
          <internalNodes>
            0 -1 26 -1.3781946897506714e-01</internalNodes>
          <leafValues>
            5.6756758689880371e-01 -6.6176468133926392e-01</leafValues></_>
        <_>
          <internalNodes>
            0 -1 13 1.7124461010098457e-03</internalNodes>
          <leafValues>
            -9.2367732524871826e-01 3.5264307260513306e-01</leafValues></_>
        <_>
          <internalNodes>
            0 -1 17 -2.8210240602493286e-01</internalNodes>
          <leafValues>
            9.4953584671020508e-01 -3.4872502088546753e-01</leafValues></_>
        <_>
          <internalNodes>
            0 -1 86 -1.0781628079712391e-03</internalNodes>
          <leafValues>
            -9.2287427186965942e-01 3.7875497341156006e-01</leafValues></_>
        <_>
          <internalNodes>
            0 -1 89 -1.1843673419207335e-03</internalNodes>
          <leafValues>
            5.3942900896072388e-01 -5.6068915128707886e-01</leafValues></_></weakClassifiers></_>
    <!-- stage 3 -->
    <_>
      <maxWeakCount>3</maxWeakCount>
      <stageThreshold>-1.6339199244976044e-01</stageThreshold>
      <weakClassifiers>
        <_>
          <internalNodes>
            0 -1 6 -3.1483829021453857e-01</internalNodes>
          <leafValues>
            4.6590909361839294e-01 -8.1481480598449707e-01</leafValues></_>
        <_>
          <internalNodes>
            0 -1 36 4.6153035946190357e-03</internalNodes>
          <leafValues>
            -9.2462474107742310e-01 3.0184021592140198e-01</leafValues></_>
        <_>
          <internalNodes>
            0 -1 20 3.6750576691702008e-04</internalNodes>
          <leafValues>
            3.4958261251449585e-01 -8.0174160003662109e-01</leafValues></_></weakClassifiers></_>
    <!-- stage 4 -->
    <_>
      <maxWeakCount>4</maxWeakCount>
      <stageThreshold>-1.8118022382259369e-01</stageThreshold>
      <weakClassifiers>
        <_>
          <internalNodes>
            0 -1 27 -2.1386301517486572e-01</internalNodes>
          <leafValues>
            5.8730161190032959e-01 -5.0632911920547485e-01</leafValues></_>
        <_>
          <internalNodes>
            0 -1 47 3.5394965671002865e-03</internalNodes>
          <leafValues>
            4.0716066956520081e-01 -7.7928900718688965e-01</leafValues></_>
        <_>
          <internalNodes>
            0 -1 60 -6.4940573647618294e-03</internalNodes>
          <leafValues>
            6.9707340002059937e-01 -5.0467258691787720e-01</leafValues></_>
        <_>
          <internalNodes>
            0 -1 63 2.9179635021137074e-05</internalNodes>
          <leafValues>
            -6.3596141338348389e-01 5.1547980308532715e-01</leafValues></_></weakClassifiers></_>
    <!-- stage 5 -->
    <_>
      <maxWeakCount>6</maxWeakCount>
      <stageThreshold>-3.3989757299423218e-01</stageThreshold>
      <weakClassifiers>
        <_>
          <internalNodes>
            0 -1 31 -1.2139524333178997e-03</internalNodes>
          <leafValues>
            -7.8723406791687012e-01 3.5789474844932556e-01</leafValues></_>
        <_>
          <internalNodes>
            0 -1 102 -2.3067563306540251e-03</internalNodes>
          <leafValues>
            -8.6888855695724487e-01 3.1629428267478943e-01</leafValues></_>
        <_>
          <internalNodes>
            0 -1 53 -2.8547354042530060e-02</internalNodes>
          <leafValues>
            7.2324603796005249e-01 -4.2602920532226563e-01</leafValues></_>
        <_>
          <internalNodes>
            0 -1 14 -2.1515801199711859e-04</internalNodes>
          <leafValues>
            6.6537940502166748e-01 -4.1604414582252502e-01</leafValues></_>
        <_>
          <internalNodes>
            0 -1 58 5.9438445605337620e-03</internalNodes>
          <leafValues>
            -7.8191077709197998e-01 3.1846684217453003e-01</leafValues></_>
        <_>
          <internalNodes>
            0 -1 38 -2.9471868276596069e-01</internalNodes>
          <leafValues>
            8.0511671304702759e-01 -4.2677482962608337e-01</leafValues></_></weakClassifiers></_>
    <!-- stage 6 -->
    <_>
      <maxWeakCount>6</maxWeakCount>
      <stageThreshold>-7.8482413291931152e-01</stageThreshold>
      <weakClassifiers>
        <_>
          <internalNodes>
            0 -1 1 2.4749484146013856e-04</internalNodes>
          <leafValues>
            3.0964466929435730e-01 -7.7011495828628540e-01</leafValues></_>
        <_>
          <internalNodes>
            0 -1 30 -1.3806873932480812e-02</internalNodes>
          <leafValues>
            6.7883634567260742e-01 -4.8306518793106079e-01</leafValues></_>
        <_>
          <internalNodes>
            0 -1 106 1.2646748218685389e-03</internalNodes>
          <leafValues>
            3.1269764900207520e-01 -9.0862500667572021e-01</leafValues></_>
        <_>
          <internalNodes>
            0 -1 21 -5.0651928177103400e-04</internalNodes>
          <leafValues>
            -7.2521442174911499e-01 3.4542196989059448e-01</leafValues></_>
        <_>
          <internalNodes>
            0 -1 45 -8.0503132194280624e-03</internalNodes>
          <leafValues>
            6.4568197727203369e-01 -4.5181512832641602e-01</leafValues></_>
        <_>
          <internalNodes>
            0 -1 104 -2.3491671308875084e-03</internalNodes>
          <leafValues>
            -7.5828695297241211e-01 3.5298982262611389e-01</leafValues></_></weakClassifiers></_>
    <!-- stage 7 -->
    <_>
      <maxWeakCount>3</maxWeakCount>
      <stageThreshold>-1.1622173339128494e-01</stageThreshold>
      <weakClassifiers>
        <_>
          <internalNodes>
            0 -1 90 -5.9006679803133011e-03</internalNodes>
          <leafValues>
            -7.5280898809432983e-01 3.1282052397727966e-01</leafValues></_>
        <_>
          <internalNodes>
            0 -1 82 5.2404170855879784e-03</internalNodes>
          <leafValues>
            3.3851411938667297e-01 -6.8338376283645630e-01</leafValues></_>
        <_>
          <internalNodes>
            0 -1 0 -1.8388777971267700e-01</internalNodes>
          <leafValues>
            2.9807314276695251e-01 -7.6709592342376709e-01</leafValues></_></weakClassifiers></_>
    <!-- stage 8 -->
    <_>
      <maxWeakCount>4</maxWeakCount>
      <stageThreshold>-1.1096249818801880e+00</stageThreshold>
      <weakClassifiers>
        <_>
          <internalNodes>
            0 -1 67 1.8165917135775089e-03</internalNodes>
          <leafValues>
            -7.7570092678070068e-01 4.3502825498580933e-01</leafValues></_>
        <_>
          <internalNodes>
            0 -1 46 -1.0790115222334862e-02</internalNodes>
          <leafValues>
            8.5918110609054565e-01 -4.0591719746589661e-01</leafValues></_>
        <_>
          <internalNodes>
            0 -1 32 5.9761479496955872e-04</internalNodes>
          <leafValues>
            4.0233722329139709e-01 -7.6277458667755127e-01</leafValues></_>
        <_>
          <internalNodes>
            0 -1 52 1.0956920683383942e-01</internalNodes>
          <leafValues>
            -3.7596145272254944e-01 8.6429101228713989e-01</leafValues></_></weakClassifiers></_>
    <!-- stage 9 -->
    <_>
      <maxWeakCount>4</maxWeakCount>
      <stageThreshold>-2.6222965121269226e-01</stageThreshold>
      <weakClassifiers>
        <_>
          <internalNodes>
            0 -1 19 -1.2655984610319138e-02</internalNodes>
          <leafValues>
            -7.4757283926010132e-01 3.9226520061492920e-01</leafValues></_>
        <_>
          <internalNodes>
            0 -1 50 -2.0511164329946041e-03</internalNodes>
          <leafValues>
            -6.1652761697769165e-01 4.1371342539787292e-01</leafValues></_>
        <_>
          <internalNodes>
            0 -1 80 3.1811073422431946e-02</internalNodes>
          <leafValues>
            -5.4117029905319214e-01 5.4205673933029175e-01</leafValues></_>
        <_>
          <internalNodes>
            0 -1 44 -8.3006955683231354e-03</internalNodes>
          <leafValues>
            7.0671600103378296e-01 -4.7042700648307800e-01</leafValues></_></weakClassifiers></_>
    <!-- stage 10 -->
    <_>
      <maxWeakCount>5</maxWeakCount>
      <stageThreshold>-6.0063236951828003e-01</stageThreshold>
      <weakClassifiers>
        <_>
          <internalNodes>
            0 -1 23 -1.5296693146228790e-01</internalNodes>
          <leafValues>
            8.0487805604934692e-01 -3.5643565654754639e-01</leafValues></_>
        <_>
          <internalNodes>
            0 -1 22 4.9908547662198544e-03</internalNodes>
          <leafValues>
            -3.1527993083000183e-01 7.7389729022979736e-01</leafValues></_>
        <_>
          <internalNodes>
            0 -1 68 -3.0188136734068394e-03</internalNodes>
          <leafValues>
            4.7088852524757385e-01 -5.3671252727508545e-01</leafValues></_>
        <_>
          <internalNodes>
            0 -1 49 -5.2222353406250477e-03</internalNodes>
          <leafValues>
            -7.4533760547637939e-01 3.4018656611442566e-01</leafValues></_>
        <_>
          <internalNodes>
            0 -1 18 -3.7977381725795567e-04</internalNodes>
          <leafValues>
            -7.3999190330505371e-01 3.5460945963859558e-01</leafValues></_></weakClassifiers></_>
    <!-- stage 11 -->
    <_>
      <maxWeakCount>3</maxWeakCount>
      <stageThreshold>-4.8920279741287231e-01</stageThreshold>
      <weakClassifiers>
        <_>
          <internalNodes>
            0 -1 103 -1.4213694958016276e-03</internalNodes>
          <leafValues>
            -6.4028775691986084e-01 5.7241380214691162e-01</leafValues></_>
        <_>
          <internalNodes>
            0 -1 75 2.3510530591011047e-02</internalNodes>
          <leafValues>
            -3.7759903073310852e-01 8.8667261600494385e-01</leafValues></_>
        <_>
          <internalNodes>
            0 -1 85 -3.6614276468753815e-03</internalNodes>
          <leafValues>
            -6.6693538427352905e-01 5.2868396043777466e-01</leafValues></_></weakClassifiers></_>
    <!-- stage 12 -->
    <_>
      <maxWeakCount>4</maxWeakCount>
      <stageThreshold>-4.0024539828300476e-01</stageThreshold>
      <weakClassifiers>
        <_>
          <internalNodes>
            0 -1 81 -7.6614203862845898e-05</internalNodes>
          <leafValues>
            -6.7241376638412476e-01 4.2857143282890320e-01</leafValues></_>
        <_>
          <internalNodes>
            0 -1 70 4.4430126436054707e-03</internalNodes>
          <leafValues>
            -4.1683250665664673e-01 7.6311475038528442e-01</leafValues></_>
        <_>
          <internalNodes>
            0 -1 96 1.1386552359908819e-03</internalNodes>
          <leafValues>
            3.9801380038261414e-01 -7.8359627723693848e-01</leafValues></_>
        <_>
          <internalNodes>
            0 -1 100 -2.5676623918116093e-03</internalNodes>
          <leafValues>
            -8.0999809503555298e-01 3.7838974595069885e-01</leafValues></_></weakClassifiers></_>
    <!-- stage 13 -->
    <_>
      <maxWeakCount>4</maxWeakCount>
      <stageThreshold>-9.1057389974594116e-01</stageThreshold>
      <weakClassifiers>
        <_>
          <internalNodes>
            0 -1 88 -3.6707209073938429e-04</internalNodes>
          <leafValues>
            -8.7628865242004395e-01 4.2245990037918091e-01</leafValues></_>
        <_>
          <internalNodes>
            0 -1 24 -1.2379817198961973e-03</internalNodes>
          <leafValues>
            -7.9372060298919678e-01 2.8734537959098816e-01</leafValues></_>
        <_>
          <internalNodes>
            0 -1 105 1.8946573254652321e-04</internalNodes>
          <leafValues>
            3.8158807158470154e-01 -6.6254228353500366e-01</leafValues></_>
        <_>
          <internalNodes>
            0 -1 87 -2.5803793687373400e-04</internalNodes>
          <leafValues>
            -9.8311787843704224e-01 3.4091168642044067e-01</leafValues></_></weakClassifiers></_>
    <!-- stage 14 -->
    <_>
      <maxWeakCount>5</maxWeakCount>
      <stageThreshold>-5.3395718336105347e-01</stageThreshold>
      <weakClassifiers>
        <_>
          <internalNodes>
            0 -1 10 -3.2920280937105417e-03</internalNodes>
          <leafValues>
            -6.7272728681564331e-01 3.9080458879470825e-01</leafValues></_>
        <_>
          <internalNodes>
            0 -1 65 6.1391824856400490e-03</internalNodes>
          <leafValues>
            -3.4485152363777161e-01 8.0020707845687866e-01</leafValues></_>
        <_>
          <internalNodes>
            0 -1 39 7.2444580495357513e-02</internalNodes>
          <leafValues>
            -4.1310948133468628e-01 6.1011028289794922e-01</leafValues></_>
        <_>
          <internalNodes>
            0 -1 33 -8.4939623775426298e-05</internalNodes>
          <leafValues>
            -4.6967840194702148e-01 5.8009827136993408e-01</leafValues></_>
        <_>
          <internalNodes>
            0 -1 2 -1.0699627455323935e-03</internalNodes>
          <leafValues>
            -7.2034215927124023e-01 4.6708041429519653e-01</leafValues></_></weakClassifiers></_>
    <!-- stage 15 -->
    <_>
      <maxWeakCount>4</maxWeakCount>
      <stageThreshold>-3.9306545257568359e-01</stageThreshold>
      <weakClassifiers>
        <_>
          <internalNodes>
            0 -1 105 2.3530406178906560e-04</internalNodes>
          <leafValues>
            3.8728323578834534e-01 -6.5765768289566040e-01</leafValues></_>
        <_>
          <internalNodes>
            0 -1 55 -1.0962219908833504e-02</internalNodes>
          <leafValues>
            6.6747462749481201e-01 -3.7667545676231384e-01</leafValues></_>
        <_>
          <internalNodes>
            0 -1 84 -2.5112347429967485e-05</internalNodes>
          <leafValues>
            -5.2526432275772095e-01 5.4071509838104248e-01</leafValues></_>
        <_>
          <internalNodes>
            0 -1 28 -1.5379472635686398e-02</internalNodes>
          <leafValues>
            -9.4438832998275757e-01 2.5110498070716858e-01</leafValues></_></weakClassifiers></_>
    <!-- stage 16 -->
    <_>
      <maxWeakCount>6</maxWeakCount>
      <stageThreshold>-7.2202682495117188e-01</stageThreshold>
      <weakClassifiers>
        <_>
          <internalNodes>
            0 -1 15 5.0559616647660732e-04</internalNodes>
          <leafValues>
            -5.8677685260772705e-01 3.9877301454544067e-01</leafValues></_>
        <_>
          <internalNodes>
            0 -1 11 -2.2395352425519377e-04</internalNodes>
          <leafValues>
            -5.8531683683395386e-01 3.8684529066085815e-01</leafValues></_>
        <_>
          <internalNodes>
            0 -1 92 1.2179658515378833e-03</internalNodes>
          <leafValues>
            5.3087091445922852e-01 -4.9538037180900574e-01</leafValues></_>
        <_>
          <internalNodes>
            0 -1 48 -1.1512244818732142e-03</internalNodes>
          <leafValues>
            -3.2092350721359253e-01 7.1751219034194946e-01</leafValues></_>
        <_>
          <internalNodes>
            0 -1 71 -5.3785978816449642e-03</internalNodes>
          <leafValues>
            7.6249569654464722e-01 -3.5270434617996216e-01</leafValues></_>
        <_>
          <internalNodes>
            0 -1 59 -1.6066341195255518e-03</internalNodes>
          <leafValues>
            7.8417831659317017e-01 -3.3863690495491028e-01</leafValues></_></weakClassifiers></_>
    <!-- stage 17 -->
    <_>
      <maxWeakCount>5</maxWeakCount>
      <stageThreshold>-3.6695986986160278e-01</stageThreshold>
      <weakClassifiers>
        <_>
          <internalNodes>
            0 -1 34 -8.9364558458328247e-02</internalNodes>
          <leafValues>
            7.7777779102325439e-01 -3.9175257086753845e-01</leafValues></_>
        <_>
          <internalNodes>
            0 -1 54 6.2250029295682907e-03</internalNodes>
          <leafValues>
            -4.3170258402824402e-01 7.3558026552200317e-01</leafValues></_>
        <_>
          <internalNodes>
            0 -1 83 1.7131812637671828e-03</internalNodes>
          <leafValues>
            -6.3903331756591797e-01 3.9656248688697815e-01</leafValues></_>
        <_>
          <internalNodes>
            0 -1 74 2.2507552057504654e-02</internalNodes>
          <leafValues>
            -2.8314074873924255e-01 9.2630451917648315e-01</leafValues></_>
        <_>
          <internalNodes>
            0 -1 16 -6.2434282153844833e-03</internalNodes>
          <leafValues>
            3.9316117763519287e-01 -8.2645678520202637e-01</leafValues></_></weakClassifiers></_>
    <!-- stage 18 -->
    <_>
      <maxWeakCount>4</maxWeakCount>
      <stageThreshold>-1.0354536771774292e+00</stageThreshold>
      <weakClassifiers>
        <_>
          <internalNodes>
            0 -1 42 -1.1866767890751362e-03</internalNodes>
          <leafValues>
            -5.3103446960449219e-01 5.1079136133193970e-01</leafValues></_>
        <_>
          <internalNodes>
            0 -1 69 -1.1167215416207910e-03</internalNodes>
          <leafValues>
            8.8609117269515991e-01 -3.0968064069747925e-01</leafValues></_>
        <_>
          <internalNodes>
            0 -1 94 -6.7599612521007657e-05</internalNodes>
          <leafValues>
            -6.3481163978576660e-01 4.2877122759819031e-01</leafValues></_>
        <_>
          <internalNodes>
            0 -1 62 1.9547869451344013e-03</internalNodes>
          <leafValues>
            4.0173286199569702e-01 -6.2350976467132568e-01</leafValues></_></weakClassifiers></_>
    <!-- stage 19 -->
    <_>
      <maxWeakCount>5</maxWeakCount>
      <stageThreshold>-3.9142495393753052e-01</stageThreshold>
      <weakClassifiers>
        <_>
          <internalNodes>
            0 -1 56 -2.9111482203006744e-02</internalNodes>
          <leafValues>
            3.6046510934829712e-01 -6.0714286565780640e-01</leafValues></_>
        <_>
          <internalNodes>
            0 -1 3 -6.1516904830932617e-01</internalNodes>
          <leafValues>
            5.2418631315231323e-01 -5.1903694868087769e-01</leafValues></_>
        <_>
          <internalNodes>
            0 -1 57 4.9584843218326569e-03</internalNodes>
          <leafValues>
            -2.6722303032875061e-01 9.4449758529663086e-01</leafValues></_>
        <_>
          <internalNodes>
            0 -1 8 -8.1939455121755600e-03</internalNodes>
          <leafValues>
            -6.1882740259170532e-01 4.5275551080703735e-01</leafValues></_>
        <_>
          <internalNodes>
            0 -1 76 -1.3636392354965210e-01</internalNodes>
          <leafValues>
            7.0111167430877686e-01 -3.9002594351768494e-01</leafValues></_></weakClassifiers></_>
    <!-- stage 20 -->
    <_>
      <maxWeakCount>6</maxWeakCount>
      <stageThreshold>-7.1567273139953613e-01</stageThreshold>
      <weakClassifiers>
        <_>
          <internalNodes>
            0 -1 101 -9.3957636272534728e-04</internalNodes>
          <leafValues>
            -8.0000001192092896e-01 2.8431373834609985e-01</leafValues></_>
        <_>
          <internalNodes>
            0 -1 12 -2.4918274721130729e-04</internalNodes>
          <leafValues>
            -6.4875930547714233e-01 3.1811702251434326e-01</leafValues></_>
        <_>
          <internalNodes>
            0 -1 64 -4.3944865465164185e-03</internalNodes>
          <leafValues>
            6.4366984367370605e-01 -4.0055131912231445e-01</leafValues></_>
        <_>
          <internalNodes>
            0 -1 79 -1.3613660121336579e-03</internalNodes>
          <leafValues>
            -7.9291236400604248e-01 3.5569840669631958e-01</leafValues></_>
        <_>
          <internalNodes>
            0 -1 107 1.5320788952521980e-04</internalNodes>
          <leafValues>
            4.6526020765304565e-01 -5.5850374698638916e-01</leafValues></_>
        <_>
          <internalNodes>
            0 -1 5 5.4431986063718796e-04</internalNodes>
          <leafValues>
            3.6956691741943359e-01 -8.5059922933578491e-01</leafValues></_></weakClassifiers></_>
    <!-- stage 21 -->
    <_>
      <maxWeakCount>5</maxWeakCount>
      <stageThreshold>-9.5671892166137695e-01</stageThreshold>
      <weakClassifiers>
        <_>
          <internalNodes>
            0 -1 109 2.0076896180398762e-04</internalNodes>
          <leafValues>
            4.4594594836235046e-01 -5.2941179275512695e-01</leafValues></_>
        <_>
          <internalNodes>
            0 -1 99 3.3304970711469650e-03</internalNodes>
          <leafValues>
            4.9352666735649109e-01 -4.9245771765708923e-01</leafValues></_>
        <_>
          <internalNodes>
            0 -1 95 7.3491390794515610e-03</internalNodes>
          <leafValues>
            2.6908296346664429e-01 -9.2031335830688477e-01</leafValues></_>
        <_>
          <internalNodes>
            0 -1 51 -2.7973216492682695e-04</internalNodes>
          <leafValues>
            -5.8880013227462769e-01 4.5085284113883972e-01</leafValues></_>
        <_>
          <internalNodes>
            0 -1 61 -5.4143063607625663e-05</internalNodes>
          <leafValues>
            3.8486769795417786e-01 -6.2292295694351196e-01</leafValues></_></weakClassifiers></_>
    <!-- stage 22 -->
    <_>
      <maxWeakCount>5</maxWeakCount>
      <stageThreshold>-3.7415805459022522e-01</stageThreshold>
      <weakClassifiers>
        <_>
          <internalNodes>
            0 -1 41 -3.0690961284562945e-04</internalNodes>
          <leafValues>
            -5.2702701091766357e-01 5.2941179275512695e-01</leafValues></_>
        <_>
          <internalNodes>
            0 -1 43 1.6711617354303598e-04</internalNodes>
          <leafValues>
            3.9811372756958008e-01 -6.1783623695373535e-01</leafValues></_>
        <_>
          <internalNodes>
            0 -1 40 -2.6410277932882309e-03</internalNodes>
          <leafValues>
            -8.9088916778564453e-01 2.4898989498615265e-01</leafValues></_>
        <_>
          <internalNodes>
            0 -1 98 1.8407874449621886e-04</internalNodes>
          <leafValues>
            3.4607043862342834e-01 -6.7780059576034546e-01</leafValues></_>
        <_>
          <internalNodes>
            0 -1 37 2.7622113702818751e-04</internalNodes>
          <leafValues>
            2.9957401752471924e-01 -7.4378466606140137e-01</leafValues></_></weakClassifiers></_>
    <!-- stage 23 -->
    <_>
      <maxWeakCount>4</maxWeakCount>
      <stageThreshold>-4.3661117553710938e-01</stageThreshold>
      <weakClassifiers>
        <_>
          <internalNodes>
            0 -1 7 -7.2209315840154886e-04</internalNodes>
          <leafValues>
            -6.0683763027191162e-01 3.8922154903411865e-01</leafValues></_>
        <_>
          <internalNodes>
            0 -1 93 -2.0646362099796534e-04</internalNodes>
          <leafValues>
            -6.5382826328277588e-01 3.9001595973968506e-01</leafValues></_>
        <_>
          <internalNodes>
            0 -1 35 4.8797847703099251e-03</internalNodes>
          <leafValues>
            4.6063882112503052e-01 -5.4631990194320679e-01</leafValues></_>
        <_>
          <internalNodes>
            0 -1 97 8.6958229076117277e-05</internalNodes>
          <leafValues>
            4.4515326619148254e-01 -6.3264328241348267e-01</leafValues></_></weakClassifiers></_>
    <!-- stage 24 -->
    <_>
      <maxWeakCount>5</maxWeakCount>
      <stageThreshold>-6.3734877109527588e-01</stageThreshold>
      <weakClassifiers>
        <_>
          <internalNodes>
            0 -1 25 -3.6163063487038016e-04</internalNodes>
          <leafValues>
            8.1609195470809937e-01 -3.9086294174194336e-01</leafValues></_>
        <_>
          <internalNodes>
            0 -1 91 2.3452867753803730e-04</internalNodes>
          <leafValues>
            5.0488114356994629e-01 -5.7407087087631226e-01</leafValues></_>
        <_>
          <internalNodes>
            0 -1 77 1.0136080672964454e-03</internalNodes>
          <leafValues>
            4.3786266446113586e-01 -6.5555047988891602e-01</leafValues></_>
        <_>
          <internalNodes>
            0 -1 4 -9.8021724261343479e-04</internalNodes>
          <leafValues>
            -6.0320436954498291e-01 5.3505218029022217e-01</leafValues></_>
        <_>
          <internalNodes>
            0 -1 108 -9.8139207693748176e-05</internalNodes>
          <leafValues>
            -5.8602529764175415e-01 6.5269404649734497e-01</leafValues></_></weakClassifiers></_></stages>
  <features>
    <_>
      <rects>
        <_>
          0 0 16 18 -1.</_>
        <_>
          8 0 8 18 2.</_></rects>
      <tilted>0</tilted></_>
    <_>
      <rects>
        <_>
          0 1 3 1 -1.</_>
        <_>
          1 1 1 1 3.</_></rects>
      <tilted>0</tilted></_>
    <_>
      <rects>
        <_>
          0 1 3 3 -1.</_>
        <_>
          0 2 3 1 3.</_></rects>
      <tilted>0</tilted></_>
    <_>
      <rects>
        <_>
          0 1 24 21 -1.</_>
        <_>
          8 1 8 21 3.</_></rects>
      <tilted>0</tilted></_>
    <_>
      <rects>
        <_>
          0 1 18 2 -1.</_>
        <_>
          0 1 9 1 2.</_>
        <_>
          9 2 9 1 2.</_></rects>
      <tilted>0</tilted></_>
    <_>
      <rects>
        <_>
          0 4 8 2 -1.</_>
        <_>
          0 4 4 1 2.</_>
        <_>
          4 5 4 1 2.</_></rects>
      <tilted>0</tilted></_>
    <_>
      <rects>
        <_>
          0 7 24 13 -1.</_>
        <_>
          8 7 8 13 3.</_></rects>
      <tilted>0</tilted></_>
    <_>
      <rects>
        <_>
          0 15 14 2 -1.</_>
        <_>
          0 15 7 1 2.</_>
        <_>
          7 16 7 1 2.</_></rects>
      <tilted>0</tilted></_>
    <_>
      <rects>
        <_>
          1 0 18 1 -1.</_>
        <_>
          10 0 9 1 2.</_></rects>
      <tilted>0</tilted></_>
    <_>
      <rects>
        <_>
          1 1 12 19 -1.</_>
        <_>
          7 1 6 19 2.</_></rects>
      <tilted>0</tilted></_>
    <_>
      <rects>
        <_>
          1 2 4 7 -1.</_>
        <_>
          3 2 2 7 2.</_></rects>
      <tilted>0</tilted></_>
    <_>
      <rects>
        <_>
          1 8 4 1 -1.</_>
        <_>
          3 8 2 1 2.</_></rects>
      <tilted>0</tilted></_>
    <_>
      <rects>
        <_>
          1 12 9 1 -1.</_>
        <_>
          4 12 3 1 3.</_></rects>
      <tilted>0</tilted></_>
    <_>
      <rects>
        <_>
          1 12 15 10 -1.</_>
        <_>
          1 17 15 5 2.</_></rects>
      <tilted>0</tilted></_>
    <_>
      <rects>
        <_>
          1 17 6 4 -1.</_>
        <_>
          1 17 3 2 2.</_>
        <_>
          4 19 3 2 2.</_></rects>
      <tilted>0</tilted></_>
    <_>
      <rects>
        <_>
          1 19 16 2 -1.</_>
        <_>
          1 19 8 1 2.</_>
        <_>
          9 20 8 1 2.</_></rects>
      <tilted>0</tilted></_>
    <_>
      <rects>
        <_>
          2 0 12 4 -1.</_>
        <_>
          8 0 6 4 2.</_></rects>
      <tilted>0</tilted></_>
    <_>
      <rects>
        <_>
          2 2 15 15 -1.</_>
        <_>
          7 2 5 15 3.</_></rects>
      <tilted>0</tilted></_>
    <_>
      <rects>
        <_>
          2 13 2 3 -1.</_>
        <_>
          2 14 2 1 3.</_></rects>
      <tilted>0</tilted></_>
    <_>
      <rects>
        <_>
          2 22 22 2 -1.</_>
        <_>
          13 22 11 2 2.</_></rects>
      <tilted>0</tilted></_>
    <_>
      <rects>
        <_>
          2 23 6 1 -1.</_>
        <_>
          5 23 3 1 2.</_></rects>
      <tilted>0</tilted></_>
    <_>
      <rects>
        <_>
          3 0 2 5 -1.</_>
        <_>
          4 0 1 5 2.</_></rects>
      <tilted>0</tilted></_>
    <_>
      <rects>
        <_>
          3 0 12 15 -1.</_>
        <_>
          7 0 4 15 3.</_></rects>
      <tilted>0</tilted></_>
    <_>
      <rects>
        <_>
          3 1 12 17 -1.</_>
        <_>
          7 1 4 17 3.</_></rects>
      <tilted>0</tilted></_>
    <_>
      <rects>
        <_>
          3 4 6 1 -1.</_>
        <_>
          5 4 2 1 3.</_></rects>
      <tilted>0</tilted></_>
    <_>
      <rects>
        <_>
          3 4 20 2 -1.</_>
        <_>
          3 4 10 1 2.</_>
        <_>
          13 5 10 1 2.</_></rects>
      <tilted>0</tilted></_>
    <_>
      <rects>
        <_>
          3 9 18 7 -1.</_>
        <_>
          9 9 6 7 3.</_></rects>
      <tilted>0</tilted></_>
    <_>
      <rects>
        <_>
          3 11 18 11 -1.</_>
        <_>
          9 11 6 11 3.</_></rects>
      <tilted>0</tilted></_>
    <_>
      <rects>
        <_>
          3 12 5 12 -1.</_>
        <_>
          3 18 5 6 2.</_></rects>
      <tilted>0</tilted></_>
    <_>
      <rects>
        <_>
          3 12 18 4 -1.</_>
        <_>
          9 12 6 4 3.</_></rects>
      <tilted>0</tilted></_>
    <_>
      <rects>
        <_>
          3 14 10 1 -1.</_>
        <_>
          8 14 5 1 2.</_></rects>
      <tilted>0</tilted></_>
    <_>
      <rects>
        <_>
          3 16 20 2 -1.</_>
        <_>
          3 17 20 1 2.</_></rects>
      <tilted>0</tilted></_>
    <_>
      <rects>
        <_>
          4 1 3 2 -1.</_>
        <_>
          5 1 1 2 3.</_></rects>
      <tilted>0</tilted></_>
    <_>
      <rects>
        <_>
          4 12 2 2 -1.</_>
        <_>
          5 12 1 2 2.</_></rects>
      <tilted>0</tilted></_>
    <_>
      <rects>
        <_>
          4 13 12 9 -1.</_>
        <_>
          8 13 4 9 3.</_></rects>
      <tilted>0</tilted></_>
    <_>
      <rects>
        <_>
          4 14 3 10 -1.</_>
        <_>
          4 19 3 5 2.</_></rects>
      <tilted>0</tilted></_>
    <_>
      <rects>
        <_>
          4 14 19 8 -1.</_>
        <_>
          4 18 19 4 2.</_></rects>
      <tilted>0</tilted></_>
    <_>
      <rects>
        <_>
          4 16 2 2 -1.</_>
        <_>
          5 16 1 2 2.</_></rects>
      <tilted>0</tilted></_>
    <_>
      <rects>
        <_>
          5 1 15 19 -1.</_>
        <_>
          10 1 5 19 3.</_></rects>
      <tilted>0</tilted></_>
    <_>
      <rects>
        <_>
          5 5 10 18 -1.</_>
        <_>
          5 14 10 9 2.</_></rects>
      <tilted>0</tilted></_>
    <_>
      <rects>
        <_>
          5 8 8 14 -1.</_>
        <_>
          5 15 8 7 2.</_></rects>
      <tilted>0</tilted></_>
    <_>
      <rects>
        <_>
          5 11 2 2 -1.</_>
        <_>
          6 11 1 2 2.</_></rects>
      <tilted>0</tilted></_>
    <_>
      <rects>
        <_>
          5 14 2 9 -1.</_>
        <_>
          6 14 1 9 2.</_></rects>
      <tilted>0</tilted></_>
    <_>
      <rects>
        <_>
          6 0 5 3 -1.</_>
        <_>
          6 1 5 1 3.</_></rects>
      <tilted>0</tilted></_>
    <_>
      <rects>
        <_>
          6 0 10 4 -1.</_>
        <_>
          6 2 10 2 2.</_></rects>
      <tilted>0</tilted></_>
    <_>
      <rects>
        <_>
          6 0 12 3 -1.</_>
        <_>
          6 1 12 1 3.</_></rects>
      <tilted>0</tilted></_>
    <_>
      <rects>
        <_>
          6 0 13 2 -1.</_>
        <_>
          6 1 13 1 2.</_></rects>
      <tilted>0</tilted></_>
    <_>
      <rects>
        <_>
          6 4 7 9 -1.</_>
        <_>
          6 7 7 3 3.</_></rects>
      <tilted>0</tilted></_>
    <_>
      <rects>
        <_>
          6 5 14 2 -1.</_>
        <_>
          6 6 14 1 2.</_></rects>
      <tilted>0</tilted></_>
    <_>
      <rects>
        <_>
          6 7 4 8 -1.</_>
        <_>
          6 11 4 4 2.</_></rects>
      <tilted>0</tilted></_>
    <_>
      <rects>
        <_>
          6 13 12 3 -1.</_>
        <_>
          6 14 12 1 3.</_></rects>
      <tilted>0</tilted></_>
    <_>
      <rects>
        <_>
          6 19 2 2 -1.</_>
        <_>
          7 19 1 2 2.</_></rects>
      <tilted>0</tilted></_>
    <_>
      <rects>
        <_>
          7 0 10 17 -1.</_>
        <_>
          12 0 5 17 2.</_></rects>
      <tilted>0</tilted></_>
    <_>
      <rects>
        <_>
          7 0 6 15 -1.</_>
        <_>
          7 5 6 5 3.</_></rects>
      <tilted>0</tilted></_>
    <_>
      <rects>
        <_>
          7 17 6 4 -1.</_>
        <_>
          9 17 2 4 3.</_></rects>
      <tilted>0</tilted></_>
    <_>
      <rects>
        <_>
          8 0 16 3 -1.</_>
        <_>
          8 1 16 1 3.</_></rects>
      <tilted>0</tilted></_>
    <_>
      <rects>
        <_>
          8 2 6 18 -1.</_>
        <_>
          8 8 6 6 3.</_></rects>
      <tilted>0</tilted></_>
    <_>
      <rects>
        <_>
          8 15 6 2 -1.</_>
        <_>
          10 15 2 2 3.</_></rects>
      <tilted>0</tilted></_>
    <_>
      <rects>
        <_>
          8 15 6 6 -1.</_>
        <_>
          8 18 6 3 2.</_></rects>
      <tilted>0</tilted></_>
    <_>
      <rects>
        <_>
          8 22 4 1 -1.</_>
        <_>
          10 22 2 1 2.</_></rects>
      <tilted>0</tilted></_>
    <_>
      <rects>
        <_>
          9 0 9 3 -1.</_>
        <_>
          9 1 9 1 3.</_></rects>
      <tilted>0</tilted></_>
    <_>
      <rects>
        <_>
          9 1 3 3 -1.</_>
        <_>
          10 1 1 3 3.</_></rects>
      <tilted>0</tilted></_>
    <_>
      <rects>
        <_>
          9 2 2 12 -1.</_>
        <_>
          9 2 1 6 2.</_>
        <_>
          10 8 1 6 2.</_></rects>
      <tilted>0</tilted></_>
    <_>
      <rects>
        <_>
          9 14 2 4 -1.</_>
        <_>
          9 16 2 2 2.</_></rects>
      <tilted>0</tilted></_>
    <_>
      <rects>
        <_>
          9 14 8 4 -1.</_>
        <_>
          9 14 4 2 2.</_>
        <_>
          13 16 4 2 2.</_></rects>
      <tilted>0</tilted></_>
    <_>
      <rects>
        <_>
          9 16 6 8 -1.</_>
        <_>
          11 16 2 8 3.</_></rects>
      <tilted>0</tilted></_>
    <_>
      <rects>
        <_>
          9 16 8 4 -1.</_>
        <_>
          9 16 4 2 2.</_>
        <_>
          13 18 4 2 2.</_></rects>
      <tilted>0</tilted></_>
    <_>
      <rects>
        <_>
          9 16 7 4 -1.</_>
        <_>
          9 18 7 2 2.</_></rects>
      <tilted>0</tilted></_>
    <_>
      <rects>
        <_>
          9 16 14 4 -1.</_>
        <_>
          9 16 7 2 2.</_>
        <_>
          16 18 7 2 2.</_></rects>
      <tilted>0</tilted></_>
    <_>
      <rects>
        <_>
          9 17 2 2 -1.</_>
        <_>
          9 17 1 1 2.</_>
        <_>
          10 18 1 1 2.</_></rects>
      <tilted>0</tilted></_>
    <_>
      <rects>
        <_>
          9 18 9 3 -1.</_>
        <_>
          12 18 3 3 3.</_></rects>
      <tilted>0</tilted></_>
    <_>
      <rects>
        <_>
          10 0 2 6 -1.</_>
        <_>
          10 2 2 2 3.</_></rects>
      <tilted>0</tilted></_>
    <_>
      <rects>
        <_>
          10 0 5 16 -1.</_>
        <_>
          10 8 5 8 2.</_></rects>
      <tilted>0</tilted></_>
    <_>
      <rects>
        <_>
          10 0 9 3 -1.</_>
        <_>
          10 1 9 1 3.</_></rects>
      <tilted>0</tilted></_>
    <_>
      <rects>
        <_>
          10 1 6 23 -1.</_>
        <_>
          12 1 2 23 3.</_></rects>
      <tilted>0</tilted></_>
    <_>
      <rects>
        <_>
          10 2 4 13 -1.</_>
        <_>
          12 2 2 13 2.</_></rects>
      <tilted>0</tilted></_>
    <_>
      <rects>
        <_>
          10 3 14 21 -1.</_>
        <_>
          10 10 14 7 3.</_></rects>
      <tilted>0</tilted></_>
    <_>
      <rects>
        <_>
          10 5 4 3 -1.</_>
        <_>
          10 6 4 1 3.</_></rects>
      <tilted>0</tilted></_>
    <_>
      <rects>
        <_>
          10 8 12 7 -1.</_>
        <_>
          16 8 6 7 2.</_></rects>
      <tilted>0</tilted></_>
    <_>
      <rects>
        <_>
          10 10 5 3 -1.</_>
        <_>
          10 11 5 1 3.</_></rects>
      <tilted>0</tilted></_>
    <_>
      <rects>
        <_>
          10 17 12 3 -1.</_>
        <_>
          16 17 6 3 2.</_></rects>
      <tilted>0</tilted></_>
    <_>
      <rects>
        <_>
          10 19 4 3 -1.</_>
        <_>
          10 20 4 1 3.</_></rects>
      <tilted>0</tilted></_>
    <_>
      <rects>
        <_>
          11 0 10 1 -1.</_>
        <_>
          16 0 5 1 2.</_></rects>
      <tilted>0</tilted></_>
    <_>
      <rects>
        <_>
          11 17 4 4 -1.</_>
        <_>
          11 19 4 2 2.</_></rects>
      <tilted>0</tilted></_>
    <_>
      <rects>
        <_>
          12 6 3 2 -1.</_>
        <_>
          13 6 1 2 3.</_></rects>
      <tilted>0</tilted></_>
    <_>
      <rects>
        <_>
          12 8 6 4 -1.</_>
        <_>
          12 10 6 2 2.</_></rects>
      <tilted>0</tilted></_>
    <_>
      <rects>
        <_>
          12 11 2 3 -1.</_>
        <_>
          13 11 1 3 2.</_></rects>
      <tilted>0</tilted></_>
    <_>
      <rects>
        <_>
          12 17 12 1 -1.</_>
        <_>
          18 17 6 1 2.</_></rects>
      <tilted>0</tilted></_>
    <_>
      <rects>
        <_>
          14 0 2 1 -1.</_>
        <_>
          15 0 1 1 2.</_></rects>
      <tilted>0</tilted></_>
    <_>
      <rects>
        <_>
          14 0 2 3 -1.</_>
        <_>
          14 1 2 1 3.</_></rects>
      <tilted>0</tilted></_>
    <_>
      <rects>
        <_>
          15 1 6 4 -1.</_>
        <_>
          15 3 6 2 2.</_></rects>
      <tilted>0</tilted></_>
    <_>
      <rects>
        <_>
          15 3 6 2 -1.</_>
        <_>
          15 3 3 1 2.</_>
        <_>
          18 4 3 1 2.</_></rects>
      <tilted>0</tilted></_>
    <_>
      <rects>
        <_>
          15 6 6 6 -1.</_>
        <_>
          15 6 3 3 2.</_>
        <_>
          18 9 3 3 2.</_></rects>
      <tilted>0</tilted></_>
    <_>
      <rects>
        <_>
          15 19 2 3 -1.</_>
        <_>
          16 19 1 3 2.</_></rects>
      <tilted>0</tilted></_>
    <_>
      <rects>
        <_>
          16 10 4 2 -1.</_>
        <_>
          16 11 4 1 2.</_></rects>
      <tilted>0</tilted></_>
    <_>
      <rects>
        <_>
          17 0 6 3 -1.</_>
        <_>
          19 0 2 3 3.</_></rects>
      <tilted>0</tilted></_>
    <_>
      <rects>
        <_>
          17 15 2 3 -1.</_>
        <_>
          18 15 1 3 2.</_></rects>
      <tilted>0</tilted></_>
    <_>
      <rects>
        <_>
          17 16 2 2 -1.</_>
        <_>
          17 16 1 1 2.</_>
        <_>
          18 17 1 1 2.</_></rects>
      <tilted>0</tilted></_>
    <_>
      <rects>
        <_>
          17 21 3 2 -1.</_>
        <_>
          18 21 1 2 3.</_></rects>
      <tilted>0</tilted></_>
    <_>
      <rects>
        <_>
          18 0 6 9 -1.</_>
        <_>
          18 3 6 3 3.</_></rects>
      <tilted>0</tilted></_>
    <_>
      <rects>
        <_>
          18 2 6 4 -1.</_>
        <_>
          18 2 3 2 2.</_>
        <_>
          21 4 3 2 2.</_></rects>
      <tilted>0</tilted></_>
    <_>
      <rects>
        <_>
          18 12 2 8 -1.</_>
        <_>
          19 12 1 8 2.</_></rects>
      <tilted>0</tilted></_>
    <_>
      <rects>
        <_>
          19 3 2 18 -1.</_>
        <_>
          19 3 1 9 2.</_>
        <_>
          20 12 1 9 2.</_></rects>
      <tilted>0</tilted></_>
    <_>
      <rects>
        <_>
          19 7 4 15 -1.</_>
        <_>
          21 7 2 15 2.</_></rects>
      <tilted>0</tilted></_>
    <_>
      <rects>
        <_>
          19 11 4 4 -1.</_>
        <_>
          19 13 4 2 2.</_></rects>
      <tilted>0</tilted></_>
    <_>
      <rects>
        <_>
          19 18 2 2 -1.</_>
        <_>
          19 19 2 1 2.</_></rects>
      <tilted>0</tilted></_>
    <_>
      <rects>
        <_>
          20 13 2 4 -1.</_>
        <_>
          21 13 1 4 2.</_></rects>
      <tilted>0</tilted></_>
    <_>
      <rects>
        <_>
          20 17 1 3 -1.</_>
        <_>
          20 18 1 1 3.</_></rects>
      <tilted>0</tilted></_>
    <_>
      <rects>
        <_>
          21 10 1 6 -1.</_>
        <_>
          21 13 1 3 2.</_></rects>
      <tilted>0</tilted></_>
    <_>
      <rects>
        <_>
          22 0 2 15 -1.</_>
        <_>
          22 5 2 5 3.</_></rects>
      <tilted>0</tilted></_></features></cascade>
</opencv_storage>
